,0,1,2,3,4,5,6,7,8,9,10,11,12
0,-0.0010616727526958653,-0.44088446501424533,-0.0005630337795486592,-0.0008104250336033161,0.00017840601479704064,3.028787646942276,-0.00041075937816697724,0.000969322832789168,-0.0022004484424279214,-0.00036710670706480435,-0.00015304425092567967,0.0004184346426006618,0.0
1,-0.0009472352851332716,-2.720899168342955,-0.0010236915406592398,0.00019714284956542905,-0.000588130953992087,-1.9577723195525085,-1.8362828598456677,0.0008494816085048663,-1.3988980487915152,-0.00039000594853598925,-0.0007762097655825168,-0.0009567352237260685,1.0
2,0.0004406948291968203,0.7099783960052909,-0.0002945121538086531,-0.0005964974520484073,-0.00011511880555722465,-0.43864738982875484,3.0401465370752816,0.0001743891386968672,-2.094555583048281,-0.00033945593213088876,0.000817092997410618,3.9038596126427882,2.0
3,-0.0007659692963315981,2.140663098801096,0.0008382631324636191,-0.0002676794547342221,-0.0001598171681139333,-0.001423079862648518,-3.8203109140633313,-8.51032008814405e-05,0.702398804292103,-0.0005568407825808162,-0.0005768089502930972,-3.310398104577002,3.0
